23 10
0 0.21591892412297142 0.15877089706410077 0.3403913917912597 0.5711420594040004 0.5960819373431612 0.09012932162090694 0.10444534233990951 0.15498124958398096 0.13066941506063354 0.2658228449384722
1000 0.17945245629962797 0.17002250367315266 0.4057315799703797 0.5567880323428284 0.06402137826529765 0.3166100963539441 0.18772296956104667 0.1742100160231016 0.4713495151183941 0.268622482032144
2000 0.43932834757961253 0.554652178122923 0.35214013094640984 0.037367264369222455 0.429390894064614 0.16084440064446795 0.27073488032914045 0.1058846282209182 0.25963377547304006 0.10856560982227532
3000 0.36131695913477885 0.036823918988233416 0.4541241468792663 0.08834370354913515 0.3654478600344942 0.20490657985622968 0.11511443918631593 0.19683831953352326 0.47053067071430266 0.45290847662123074
4000 0.03184448760245602 0.19283125629035958 0.30717701931987307 0.43540977501049255 0.36019825076845363 0.035615974945168716 0.4426209109812779 0.08370002618073205 0.24428540852895256 0.5331576110919095
5000 0.1847755019152956 0.16588740538901128 0.43680837881438067 0.4727001964858416 0.06413913195079081 0.31037241780621366 0.47034952376546535 0.4175535031173789 0.1421764674988712 0.08862127679244493
6000 0.44198599341015044 0.2357028292087857 0.20648572022907166 0.49212771524491555 0.18413721314719206 0.19510598454915118 0.247395791425649 0.507948168223812 0.05739720253319768 0.26416510105107166
7000 0.359351316044802 0.2467689281671419 0.3741259949264877 0.010108449524421399 0.04682800825170001 0.35816125747017524 0.44041293594666775 0.40498828083103017 0.42533697482174915 0.02315889239566515
8000 0.40405757289412736 0.4781251921726923 0.3147315588127104 0.4231524737956585 0.14431511966306146 0.0862584170737014 0.11326661354621756 0.47806566440531545 0.1389035851649244 0.20268726828799966
9000 0.339388721681971 0.2778166898926021 0.29690994625521505 0.2058076052651083 0.344806309101026 0.1318719334101254 0.009980919117935126 0.4136548626046435 0.20379403802268067 0.5727978039310818
10000 0.4295223132391523 0.08162019725446874 0.5748518662316077 0.031764824833405855 0.3787192732870721 0.2700756201959556 0.12549197715596264 0.3642873328518895 0.3094985444990744 0.1295109214929404
A 0.10903876969272926 0.3710831379710894 0.5069330877916292 0.08863548450036825 0.3937137807470471 0.39331758408792833 0.20192654922063533 0.07452929388961708 0.4182462014020621 0.23367146122037075
B 0.1279040358063686 0.14630743391645734 0.034416346017994266 0.14756875455965593 0.23652084081909922 0.423637548753606 0.28370829193529334 0.49603079393520755 0.3462837418999364 0.5073592573363702
C 0.2351657745515187 0.2034736540226041 0.49523120290006056 0.433958913340161 0.11090569866270752 0.1795166799475082 0.22588797925757415 0.012048066948825731 0.45795351992153516 0.40534303241948366
D 0.08664454063463496 0.08522473063475629 0.4437123438807235 0.1570410463899038 0.5815151135931574 0.34187249602752423 0.2390468429169292 0.17173957500186224 0.4708663850499032 0.017241703088665156
E 0.1741554298061917 0.5752066938055986 0.28194937205395837 0.11654302655091024 0.17872238492802453 0.0825463397221325 0.4925583084701388 0.34656671613602164 0.2909236302542347 0.2441620292726325
abc 0.24876611840234833 0.14657511232629905 0.16350858609504496 0.42287646866441453 0.2427177178537062 0.16336861764133437 0.3644926441902738 0.29359949727904217 0.4444933123166521 0.45699073989411504
abcd 0.39498714378695676 0.06162316513353086 0.5013056496079964 0.21709709549171097 0.1541278541436571 0.42030832064247414 0.01952639103165776 0.3437506921989306 0.1612461048436989 0.44360864968647723
def 0.036444319974804615 0.5116719555333625 0.0071963103861037775 0.12332788100985559 0.2213909756019071 0.12439923901287572 0.5235441652399878 0.38287863804874184 0.005624228156923685 0.4861962126821653
ghi 0.2256281778707366 0.55646129721605 0.1761600168276067 0.35413834098471153 0.3736829639642276 0.11026480594889529 0.16420009082278406 0.3481697845172104 0.023368725294634574 0.4271641171497796
xyz 0.3381482496986069 0.28447132245954204 0.45070520719445517 0.3893353795808216 0.14193842686575914 0.2012848312341292 0.2834211692255305 0.2565940066816122 0.4329355992212228 0.23611698272072923
αβγ 0.10091267806974938 0.05218701329104333 0.45896307785009033 0.5344767464632162 0.17948444780596287 0.15394261886224697 0.14251106644580627 0.1619833650283909 0.5293512827513537 0.32879606999885863
ω 0.16786990374191757 0.23465435422158404 0.23732592726336849 0.20729230354617934 0.15415563796865867 0.522733515001513 0.3632210293917306 0.2204716609773962 0.33254030815986696 0.4788827832995158
<unk> 0.0 0.0 0.0 0.0 0.0 0.0 0.0 0.0 0.0 0.0
